<?xml version="1.0"?>
<opencv_storage>
<!-- Created using Computer Vision System Toolbox(tm) for MATLAB(R) -->
<!-- Version 9.0.0.341360 (R2016a) -->
<!-- Compatible with OpenCV 2.4 -->
<cascade>
  <stageType>BOOST</stageType>
  <featureType>HOG</featureType>
  <height>32</height>
  <width>101</width>
  <stageParams>
    <boostType>GAB</boostType>
    <minHitRate>9.9500000476837158e-01</minHitRate>
    <maxFalseAlarm>2.9999999329447746e-02</maxFalseAlarm>
    <weightTrimRate>9.4999999999999996e-01</weightTrimRate>
    <maxDepth>1</maxDepth>
    <maxWeakCount>100</maxWeakCount></stageParams>
  <featureParams>
    <maxCatCount>0</maxCatCount>
    <featSize>36</featSize></featureParams>
  <stageNum>5</stageNum>
  <stages>
    <!-- stage 0 -->
    <_>
      <maxWeakCount>3</maxWeakCount>
      <stageThreshold>9.2262899875640869e-01</stageThreshold>
      <weakClassifiers>
        <_>
          <internalNodes>
            0 -1 11 2.9021367430686951e-02</internalNodes>
          <leafValues>
            -1. 8.4615385532379150e-01</leafValues></_>
        <_>
          <internalNodes>
            0 -1 13 3.5132147371768951e-02</internalNodes>
          <leafValues>
            -9.2352485656738281e-01 1.</leafValues></_>
        <_>
          <internalNodes>
            0 -1 8 3.6780782043933868e-02</internalNodes>
          <leafValues>
            -8.6278474330902100e-01 1.</leafValues></_></weakClassifiers></_>
    <!-- stage 1 -->
    <_>
      <maxWeakCount>4</maxWeakCount>
      <stageThreshold>-1.3137933611869812e-01</stageThreshold>
      <weakClassifiers>
        <_>
          <internalNodes>
            0 -1 18 3.8376517593860626e-02</internalNodes>
          <leafValues>
            -9.1304349899291992e-01 6.9230771064758301e-01</leafValues></_>
        <_>
          <internalNodes>
            0 -1 4 3.6572348326444626e-02</internalNodes>
          <leafValues>
            -8.4939628839492798e-01 8.5789769887924194e-01</leafValues></_>
        <_>
          <internalNodes>
            0 -1 2 3.7880085408687592e-02</internalNodes>
          <leafValues>
            -7.8677046298980713e-01 8.8202160596847534e-01</leafValues></_>
        <_>
          <internalNodes>
            0 -1 0 2.2389899939298630e-02</internalNodes>
          <leafValues>
            -8.5502707958221436e-01 8.1247967481613159e-01</leafValues></_></weakClassifiers></_>
    <!-- stage 2 -->
    <_>
      <maxWeakCount>5</maxWeakCount>
      <stageThreshold>3.3281838893890381e-01</stageThreshold>
      <weakClassifiers>
        <_>
          <internalNodes>
            0 -1 3 4.3341360986232758e-02</internalNodes>
          <leafValues>
            -8.1578946113586426e-01 8.1250000000000000e-01</leafValues></_>
        <_>
          <internalNodes>
            0 -1 17 4.7572065144777298e-02</internalNodes>
          <leafValues>
            -9.6720916032791138e-01 4.5220232009887695e-01</leafValues></_>
        <_>
          <internalNodes>
            0 -1 12 3.6335822194814682e-02</internalNodes>
          <leafValues>
            -8.0592477321624756e-01 6.7453771829605103e-01</leafValues></_>
        <_>
          <internalNodes>
            0 -1 16 1.4030819758772850e-02</internalNodes>
          <leafValues>
            7.7726083993911743e-01 -6.7915391921997070e-01</leafValues></_>
        <_>
          <internalNodes>
            0 -1 10 2.9710525646805763e-02</internalNodes>
          <leafValues>
            -7.0326507091522217e-01 7.0102179050445557e-01</leafValues></_></weakClassifiers></_>
    <!-- stage 3 -->
    <_>
      <maxWeakCount>5</maxWeakCount>
      <stageThreshold>1.6749875247478485e-01</stageThreshold>
      <weakClassifiers>
        <_>
          <internalNodes>
            0 -1 14 3.8122974336147308e-02</internalNodes>
          <leafValues>
            -8.4848487377166748e-01 4.7619047760963440e-01</leafValues></_>
        <_>
          <internalNodes>
            0 -1 7 2.2898439317941666e-02</internalNodes>
          <leafValues>
            -7.7369379997253418e-01 4.6364861726760864e-01</leafValues></_>
        <_>
          <internalNodes>
            0 -1 9 3.2825157046318054e-02</internalNodes>
          <leafValues>
            -7.3198425769805908e-01 6.4049071073532104e-01</leafValues></_>
        <_>
          <internalNodes>
            0 -1 6 6.6459506750106812e-02</internalNodes>
          <leafValues>
            -4.7817888855934143e-01 8.0298626422882080e-01</leafValues></_>
        <_>
          <internalNodes>
            0 -1 19 2.5073137134313583e-02</internalNodes>
          <leafValues>
            5.0353312492370605e-01 -8.4334230422973633e-01</leafValues></_></weakClassifiers></_>
    <!-- stage 4 -->
    <_>
      <maxWeakCount>3</maxWeakCount>
      <stageThreshold>8.4727251529693604e-01</stageThreshold>
      <weakClassifiers>
        <_>
          <internalNodes>
            0 -1 5 1.8391773104667664e-02</internalNodes>
          <leafValues>
            -8.8235294818878174e-01 9.4444441795349121e-01</leafValues></_>
        <_>
          <internalNodes>
            0 -1 15 2.0986154675483704e-02</internalNodes>
          <leafValues>
            -9.1114610433578491e-01 8.9947968721389771e-01</leafValues></_>
        <_>
          <internalNodes>
            0 -1 1 1.1409495025873184e-02</internalNodes>
          <leafValues>
            -9.3530333042144775e-01 8.3014577627182007e-01</leafValues></_></weakClassifiers></_></stages>
  <features>
    <_>
      <rect>
        0 4 8 8 6</rect></_>
    <_>
      <rect>
        0 16 8 8 6</rect></_>
    <_>
      <rect>
        4 12 8 8 6</rect></_>
    <_>
      <rect>
        84 12 8 8 11</rect></_>
    <_>
      <rect>
        0 8 16 8 5</rect></_>
    <_>
      <rect>
        0 16 16 8 6</rect></_>
    <_>
      <rect>
        0 16 16 8 31</rect></_>
    <_>
      <rect>
        12 4 16 8 33</rect></_>
    <_>
      <rect>
        20 12 16 8 23</rect></_>
    <_>
      <rect>
        36 8 16 8 21</rect></_>
    <_>
      <rect>
        44 0 16 8 23</rect></_>
    <_>
      <rect>
        56 16 16 8 29</rect></_>
    <_>
      <rect>
        68 8 16 8 28</rect></_>
    <_>
      <rect>
        20 0 16 16 23</rect></_>
    <_>
      <rect>
        56 0 16 16 21</rect></_>
    <_>
      <rect>
        0 0 32 16 24</rect></_>
    <_>
      <rect>
        12 0 32 16 19</rect></_>
    <_>
      <rect>
        16 0 32 16 31</rect></_>
    <_>
      <rect>
        36 0 32 16 29</rect></_>
    <_>
      <rect>
        36 0 32 16 32</rect></_></features></cascade>
</opencv_storage>
