<?xml version="1.0"?>
<opencv_storage>
<!-- Created using Computer Vision System Toolbox(tm) for MATLAB(R) -->
<!-- Version 9.0.0.341360 (R2016a) -->
<!-- Compatible with OpenCV 2.4 -->
<cascade>
  <stageType>BOOST</stageType>
  <featureType>HOG</featureType>
  <height>32</height>
  <width>101</width>
  <stageParams>
    <boostType>GAB</boostType>
    <minHitRate>9.9500000476837158e-01</minHitRate>
    <maxFalseAlarm>5.0000000745058060e-02</maxFalseAlarm>
    <weightTrimRate>9.4999999999999996e-01</weightTrimRate>
    <maxDepth>1</maxDepth>
    <maxWeakCount>100</maxWeakCount></stageParams>
  <featureParams>
    <maxCatCount>0</maxCatCount>
    <featSize>36</featSize></featureParams>
  <stageNum>5</stageNum>
  <stages>
    <!-- stage 0 -->
    <_>
      <maxWeakCount>1</maxWeakCount>
      <stageThreshold>8.4615385532379150e-01</stageThreshold>
      <weakClassifiers>
        <_>
          <internalNodes>
            0 -1 11 2.9021367430686951e-02</internalNodes>
          <leafValues>
            -1. 8.4615385532379150e-01</leafValues></_></weakClassifiers></_>
    <!-- stage 1 -->
    <_>
      <maxWeakCount>3</maxWeakCount>
      <stageThreshold>-7.5680506229400635e-01</stageThreshold>
      <weakClassifiers>
        <_>
          <internalNodes>
            0 -1 16 3.5007037222385406e-02</internalNodes>
          <leafValues>
            -9.4520545005798340e-01 9.4285714626312256e-01</leafValues></_>
        <_>
          <internalNodes>
            0 -1 14 3.8412116467952728e-02</internalNodes>
          <leafValues>
            -7.5626474618911743e-01 9.4693922996520996e-01</leafValues></_>
        <_>
          <internalNodes>
            0 -1 10 3.8615278899669647e-02</internalNodes>
          <leafValues>
            -8.1255257129669189e-01 9.4466519355773926e-01</leafValues></_></weakClassifiers></_>
    <!-- stage 2 -->
    <_>
      <maxWeakCount>4</maxWeakCount>
      <stageThreshold>-2.8909081220626831e-01</stageThreshold>
      <weakClassifiers>
        <_>
          <internalNodes>
            0 -1 12 3.4538090229034424e-02</internalNodes>
          <leafValues>
            -7.8947371244430542e-01 7.5000000000000000e-01</leafValues></_>
        <_>
          <internalNodes>
            0 -1 4 2.7014132589101791e-02</internalNodes>
          <leafValues>
            -8.0705118179321289e-01 6.6646057367324829e-01</leafValues></_>
        <_>
          <internalNodes>
            0 -1 7 3.2214157283306122e-02</internalNodes>
          <leafValues>
            -8.7941330671310425e-01 6.5438169240951538e-01</leafValues></_>
        <_>
          <internalNodes>
            0 -1 9 3.0169520527124405e-02</internalNodes>
          <leafValues>
            -8.2045942544937134e-01 7.9162132740020752e-01</leafValues></_></weakClassifiers></_>
    <!-- stage 3 -->
    <_>
      <maxWeakCount>5</maxWeakCount>
      <stageThreshold>5.5647408962249756e-01</stageThreshold>
      <weakClassifiers>
        <_>
          <internalNodes>
            0 -1 15 3.9757259190082550e-02</internalNodes>
          <leafValues>
            -8.8888889551162720e-01 7.7777779102325439e-01</leafValues></_>
        <_>
          <internalNodes>
            0 -1 13 1.1953959241509438e-02</internalNodes>
          <leafValues>
            9.5349532365798950e-01 -6.7005383968353271e-01</leafValues></_>
        <_>
          <internalNodes>
            0 -1 17 4.8353575170040131e-02</internalNodes>
          <leafValues>
            -9.7678118944168091e-01 6.3692998886108398e-01</leafValues></_>
        <_>
          <internalNodes>
            0 -1 5 1.5443964861333370e-02</internalNodes>
          <leafValues>
            6.9633412361145020e-01 -8.9828020334243774e-01</leafValues></_>
        <_>
          <internalNodes>
            0 -1 3 1.4022976160049438e-02</internalNodes>
          <leafValues>
            7.8215271234512329e-01 -8.2029515504837036e-01</leafValues></_></weakClassifiers></_>
    <!-- stage 4 -->
    <_>
      <maxWeakCount>5</maxWeakCount>
      <stageThreshold>2.5622794032096863e-01</stageThreshold>
      <weakClassifiers>
        <_>
          <internalNodes>
            0 -1 2 1.5348024666309357e-02</internalNodes>
          <leafValues>
            -1. 1.4285714924335480e-01</leafValues></_>
        <_>
          <internalNodes>
            0 -1 1 2.7553442865610123e-02</internalNodes>
          <leafValues>
            -8.8913577795028687e-01 2.3758247494697571e-01</leafValues></_>
        <_>
          <internalNodes>
            0 -1 8 2.7257531881332397e-02</internalNodes>
          <leafValues>
            -8.8331425189971924e-01 3.3135858178138733e-01</leafValues></_>
        <_>
          <internalNodes>
            0 -1 0 3.3896461129188538e-02</internalNodes>
          <leafValues>
            -8.3857458829879761e-01 4.1541305184364319e-01</leafValues></_>
        <_>
          <internalNodes>
            0 -1 6 1.5769509598612785e-02</internalNodes>
          <leafValues>
            -8.3173710107803345e-01 3.8300430774688721e-01</leafValues></_></weakClassifiers></_></stages>
  <features>
    <_>
      <rect>
        0 8 8 8 31</rect></_>
    <_>
      <rect>
        48 12 8 8 21</rect></_>
    <_>
      <rect>
        52 4 8 8 5</rect></_>
    <_>
      <rect>
        84 8 8 8 32</rect></_>
    <_>
      <rect>
        84 16 8 8 10</rect></_>
    <_>
      <rect>
        0 0 8 16 18</rect></_>
    <_>
      <rect>
        44 0 8 16 11</rect></_>
    <_>
      <rect>
        0 0 16 8 23</rect></_>
    <_>
      <rect>
        0 8 16 8 6</rect></_>
    <_>
      <rect>
        0 12 16 8 6</rect></_>
    <_>
      <rect>
        20 4 16 8 32</rect></_>
    <_>
      <rect>
        56 16 16 8 29</rect></_>
    <_>
      <rect>
        0 0 16 16 6</rect></_>
    <_>
      <rect>
        0 0 16 16 19</rect></_>
    <_>
      <rect>
        16 0 16 16 23</rect></_>
    <_>
      <rect>
        60 0 16 16 21</rect></_>
    <_>
      <rect>
        16 0 32 16 23</rect></_>
    <_>
      <rect>
        16 0 32 16 31</rect></_></features></cascade>
</opencv_storage>
